Language model created by QuickLM on Sun Nov 16 12:32:20 EST 2014
Copyright (c) 1996-2010 Carnegie Mellon University and Alexander I. Rudnicky

The model is in standard ARPA format, designed by Doug Paul while he was at MITRE.

The code that was used to produce this language model is available in Open Source.
Please visit http://www.speech.cs.cmu.edu/tools/ for more information

The (fixed) discount mass is 0.5. The backoffs are computed using the ratio method.
This model based on a corpus of 23 sentences and 25 words

\data\
ngram 1=25
ngram 2=46
ngram 3=23

\1-grams:
-0.7782 </s> -0.3010
-0.7782 <s> -0.2218
-2.1399 BE -0.2218
-2.1399 BEING -0.2218
-2.1399 BUT -0.2218
-2.1399 CAN -0.2218
-2.1399 DEVIN -0.2218
-2.1399 DID -0.2218
-2.1399 FELIX -0.2218
-2.1399 FIRST -0.2218
-2.1399 HEAR -0.2218
-2.1399 HELLO -0.2218
-2.1399 IN -0.2218
-2.1399 IS -0.2218
-2.1399 IT -0.2218
-2.1399 NOW -0.2218
-2.1399 OF -0.2218
-2.1399 ON -0.2218
-2.1399 RIGHT -0.2218
-2.1399 SAY -0.2218
-2.1399 WHAT -0.2218
-2.1399 WHICH -0.2218
-2.1399 WITH -0.2218
-2.1399 WORK -0.2218
-2.1399 YOU -0.2218

\2-grams:
-1.6628 <s> BE 0.0000
-1.6628 <s> BEING 0.0000
-1.6628 <s> BUT 0.0000
-1.6628 <s> CAN 0.0000
-1.6628 <s> DEVIN 0.0000
-1.6628 <s> DID 0.0000
-1.6628 <s> FELIX 0.0000
-1.6628 <s> FIRST 0.0000
-1.6628 <s> HEAR 0.0000
-1.6628 <s> HELLO 0.0000
-1.6628 <s> IN 0.0000
-1.6628 <s> IS 0.0000
-1.6628 <s> IT 0.0000
-1.6628 <s> NOW 0.0000
-1.6628 <s> OF 0.0000
-1.6628 <s> ON 0.0000
-1.6628 <s> RIGHT 0.0000
-1.6628 <s> SAY 0.0000
-1.6628 <s> WHAT 0.0000
-1.6628 <s> WHICH 0.0000
-1.6628 <s> WITH 0.0000
-1.6628 <s> WORK 0.0000
-1.6628 <s> YOU 0.0000
-0.3010 BE </s> -0.3010
-0.3010 BEING </s> -0.3010
-0.3010 BUT </s> -0.3010
-0.3010 CAN </s> -0.3010
-0.3010 DEVIN </s> -0.3010
-0.3010 DID </s> -0.3010
-0.3010 FELIX </s> -0.3010
-0.3010 FIRST </s> -0.3010
-0.3010 HEAR </s> -0.3010
-0.3010 HELLO </s> -0.3010
-0.3010 IN </s> -0.3010
-0.3010 IS </s> -0.3010
-0.3010 IT </s> -0.3010
-0.3010 NOW </s> -0.3010
-0.3010 OF </s> -0.3010
-0.3010 ON </s> -0.3010
-0.3010 RIGHT </s> -0.3010
-0.3010 SAY </s> -0.3010
-0.3010 WHAT </s> -0.3010
-0.3010 WHICH </s> -0.3010
-0.3010 WITH </s> -0.3010
-0.3010 WORK </s> -0.3010
-0.3010 YOU </s> -0.3010

\3-grams:
-0.3010 <s> BE </s>
-0.3010 <s> BEING </s>
-0.3010 <s> BUT </s>
-0.3010 <s> CAN </s>
-0.3010 <s> DEVIN </s>
-0.3010 <s> DID </s>
-0.3010 <s> FELIX </s>
-0.3010 <s> FIRST </s>
-0.3010 <s> HEAR </s>
-0.3010 <s> HELLO </s>
-0.3010 <s> IN </s>
-0.3010 <s> IS </s>
-0.3010 <s> IT </s>
-0.3010 <s> NOW </s>
-0.3010 <s> OF </s>
-0.3010 <s> ON </s>
-0.3010 <s> RIGHT </s>
-0.3010 <s> SAY </s>
-0.3010 <s> WHAT </s>
-0.3010 <s> WHICH </s>
-0.3010 <s> WITH </s>
-0.3010 <s> WORK </s>
-0.3010 <s> YOU </s>

\end\
